{"weights": [[0.8342685525900876, -4.877705125629988, 0.9374196244696321, -6.982437469965076, -0.5514620677500122, 6.24359506053542, -0.2837080882724265, 4.067315246420335, -3.075287302137293, -3.9922735830344886, -0.9194658857539381, -0.06876184621628165, -0.11701835227647614, 5.292511878513495, -0.9745612110725519, -0.30602222825624065, -0.5334969914042964], [0.15550806566901038, 0.40869806635021105, 5.113290547142221, 8.197537844560621, -7.622594739306283, 1.8665479695409737, -5.37351013891495, -5.902577941393085, 4.367408790175264, 1.0481117860285971, -1.6438497576082054, 0.7338152508376484, 0.3735138347327594, -4.893706644597571, -0.5080679808080667, -0.04827073084909656, 2.687957065494973], [-0.23414313915504548, 0.21555895856050525, -5.437660067840937, 4.135313926063358, 1.757909800073437, 1.949592896865439, 2.560579922521626, 5.695534091505581, -2.3075493278985557, -2.14676197533832, -0.3754751500797625, -0.2825533574857011, 6.423173330590762, -2.9356182168426517, 1.778667831158682, 1.1079103736719145, -1.9083380759832285], [-0.5151295546888436, 2.156625848400022, -2.770796241244236, -3.188060994241773, 4.885071505172959, -7.288050622769214, -0.6795070674549915, -3.569395627074398, -0.6193343043560133, 5.137348769013426, 3.517759182014323, 0.004764402841775736, -5.025890582463461, -2.083035420018017, -0.38472781243808407, -1.3936730252517806, 0.19464200020007685]], "bias": [0.11751302794240476, -4.274887533229101, -7.505611050810477, 1.7825416885833112], "classes": [0, 1, 2, 3]}