{"weights": [[0.8130974144913515, -2.6874918704064568, 1.7458131116142108, -4.521790690999413, 3.304841841800764, 0.2061684956861928, 4.149552252881065, -3.592087854155511, -4.421182292151211, -0.4037383182099992, -0.13197080661748203, -1.0674020664343329, 4.718972234382034, -1.1073331727943942, -0.2895182471583183, -0.38602436135171486], [0.07241891983347055, -1.6888190118248185, 8.27795572486121, 7.957509098837948, 4.13163150075727, -5.284912177113014, -7.502941884823184, 2.8962251811984854, 1.532955705617757, -3.232240617420229, -0.7419513540602399, -1.1592165299844766, -4.244097240668191, -0.6709698864084589, -0.3325706477279788, 1.7158703171766234], [-0.23573141242617995, -0.6889411333244129, -6.33731641305148, 2.777655895063226, 1.3829539178745296, 4.139832343704135, 5.020045459528464, -1.39966712210513, -1.4432425695629323, -1.8798831483877485, -0.7787885432979793, 6.168427963642748, -2.268637816230387, 1.535586993218154, 0.9814778842326395, -1.7318201205684078], [-0.2914247693097051, 2.147208388538062, -5.289305197684962, -4.326443224529381, -7.631029004281477, -1.256270454044869, -2.6879018404548503, 1.6412563431192948, 3.8502633134227504, 4.3638266926667635, 0.7208878883573188, -3.0276413734540943, -1.7940020631756528, -0.05735940680371624, -1.0303676742560652, 0.27442685885105106]], "bias": [-0.17564799145855806, -5.320034705459498, -4.667851142576073, 3.235004953375527], "classes": ["Gryffindor", "Hufflepuff", "Ravenclaw", "Slytherin"]}