{"weights": [[0.8340652508096549, -4.878341062707636, 0.9375217766698183, -6.982837298089811, -0.5510918654319632, 6.242802271322213, -0.2840097461173258, 4.067280056062881, -3.075356784780153, -3.992158226356555, -0.9199264097875194, -0.06922340610804696, -0.117933481630535, 5.292217509683194, -0.9749753513603084, -0.3065237119689617, -0.5339021901509817], [0.15303879026151393, 0.40560900208554157, 5.1105653187426325, 8.194317676892084, -7.624294775926141, 1.8640973798979896, -5.374434830065068, -5.904465089161766, 4.36490516357071, 1.0448011758353815, -1.6454526848810878, 0.7316433812300035, 0.3717383349990266, -4.895323118969016, -0.5100342660628139, -0.05060730141727871, 2.6857250779759516], [-0.23455164708844953, 0.21527335618832105, -5.437983401845855, 4.134456199447494, 1.7568804721390847, 1.9486154034378391, 2.559818754694375, 5.694302726721174, -2.308506841619154, -2.1478721191299286, -0.3759598111317142, -0.28275148834874503, 6.421861156300684, -2.9361935476180774, 1.7774234827533097, 1.1073336378042447, -1.9089058448543994], [-0.5153686113785947, 2.1562806212878476, -2.7712166839276873, -3.188693304618465, 4.884253983453695, -7.288951659527605, -0.679945562937375, -3.569717546722124, -0.6201848557560197, 5.136156274944099, 3.517215592439733, 0.0044506093864516896, -5.026782519359435, -2.083625353002363, -0.38537609704099873, -1.3940123248494625, 0.19425747489485917]], "bias": [0.11681463460989001, -4.279258838194875, -7.506798598156911, 1.7811681785116948], "classes": ["Gryffindor", "Hufflepuff", "Ravenclaw", "Slytherin"]}