{"weights": [[0.8329716084717426, -5.00095973885893, 1.4076806117076122, -6.93907890652372, 6.435003091672019, -0.2916106610973865, 4.076428019869384, -3.100750704540067, -4.027632157954498, -0.9586547734353628, -0.062123272419619464, -0.2368687105639353, 5.194558722703918, -0.9894690352224098, -0.3147226597374608, -0.5229290767041204], [0.13920494130740602, -0.9882295631385892, 9.061644623616454, 10.122755322715495, 4.897095182728906, -5.840646231172597, -6.575641907659046, 4.014559792085705, 0.3694475867791635, -1.7310577449821818, 0.4448390581862562, -2.6200576311860897, -5.052925864704034, -0.6050283516340036, -0.22446046280565413, 2.526241907011432], [-0.2436705502179936, 0.42072603312095985, -6.247112513575346, 3.7842846503136394, 1.2027535019399564, 2.7075153740533557, 5.886427675999224, -2.1168181537617623, -1.9803425793400753, -0.47712360271386145, -0.29561152740522284, 7.18676674158795, -2.7909948331174816, 1.858256771545096, 1.1636545629779598, -1.8809946202410381], [-0.4304928902369395, 2.83421158472677, -6.418190294915708, -4.089182683480042, -8.109701055765179, -0.6058914902867902, -3.4787458954117776, -0.021940621020286134, 5.802433853230251, 3.9913657816542347, 0.24326177889501077, -3.9800933679918784, -1.3785576949977656, -0.30296034923486226, -1.3349912949883158, 0.1983159529982436]], "bias": [-0.310322384402748, -9.088835916717953, -6.504005029438483, 4.463065350894715], "classes": ["Gryffindor", "Hufflepuff", "Ravenclaw", "Slytherin"]}