{"weights": [[0.813909720102264, -2.6878716025375744, 1.746972593204913, -4.522058308142739, 3.3054049295827372, 0.20744392163954925, 4.149398750349284, -3.591000873095606, -4.419886212903608, -0.4036908123081446, -0.13179101691743267, -1.0664989556318187, 4.720302769319101, -1.1064603996804196, -0.28879011320258685, -0.3855119465097788], [0.07334406017624084, -1.687445591859064, 8.279289864940496, 7.959489210475914, 4.133819804570476, -5.284437761851914, -7.501468758872176, 2.897443735240461, 1.534708626205234, -3.230244286262292, -0.7407262810346849, -1.158067517554823, -4.243386538877609, -0.6692968695460526, -0.3314136171376213, 1.7166577069242404], [-0.23507839093348837, -0.6891064135066031, -6.337018769782224, 2.7775480625975884, 1.3827886405349468, 4.140188111836094, 5.020094589640471, -1.3992977216461333, -1.4431212046406803, -1.8794923158937482, -0.7778785489603377, 6.168771667025502, -2.2686017474793316, 1.5356093142870897, 0.9816459458862293, -1.7315946601299035], [-0.29103135456145957, 2.1477225829921425, -5.28926720459757, -4.325189225793983, -7.630251662037663, -1.2556511790669016, -2.687365698612789, 1.640911554265046, 3.852216693445702, 4.364978479412672, 0.721566973588807, -3.0271628886862336, -1.7929147042585916, -0.05649346855429375, -1.0294827531850492, 0.27512811142800864]], "bias": [-0.1730739293019587, -5.317121164032, -4.667163672056803, 3.2368991191289758], "classes": ["Gryffindor", "Hufflepuff", "Ravenclaw", "Slytherin"]}